booster[0]:
0:[f1<0.5] yes=1,no=2,missing=1
	1:[f2<13] yes=3,no=4,missing=3
		3:[f3<2.5] yes=7,no=8,missing=7
			7:leaf=1.51999998
			8:leaf=-1.39999998
		4:[f5<26.2687492] yes=9,no=10,missing=9
			9:leaf=-1.57425737
			10:leaf=-0.638888896
	2:[f0<2.5] yes=5,no=6,missing=5
		5:leaf=1.74712646
		6:[f5<23.3500004] yes=11,no=12,missing=11
			11:leaf=0.34710744
			12:leaf=-1.35483873
booster[1]:
0:[f0<1.5] yes=1,no=2,missing=1
	1:[f2<53.5] yes=3,no=4,missing=3
		3:[f5<25.9270992] yes=7,no=8,missing=7
			7:leaf=-0.64234978
			8:leaf=0.576486111
		4:[f1<0.5] yes=9,no=10,missing=9
			9:leaf=-0.751512527
			10:leaf=0.624895751
	2:[f2<6.5] yes=5,no=6,missing=5
		5:[f3<2.5] yes=11,no=12,missing=11
			11:leaf=1.06890535
			12:leaf=-0.35709548
		6:[f1<0.5] yes=13,no=14,missing=13
			13:leaf=-0.507290661
			14:leaf=-0.0217379257
booster[2]:
0:[f6<0.5] yes=1,no=2,missing=1
	1:[f3<0.5] yes=3,no=4,missing=3
		3:[f5<7.91040039] yes=7,no=8,missing=7
			7:leaf=-0.433880746
			8:leaf=0.117392689
		4:[f5<8.29375076] yes=9,no=10,missing=9
			9:leaf=0.368780613
			10:leaf=-0.449333787
	2:[f1<0.5] yes=5,no=6,missing=5
		5:[f5<27.1353989] yes=11,no=12,missing=11
			11:leaf=0.323464096
			12:leaf=-0.291674256
		6:[f2<30.25] yes=13,no=14,missing=13
			13:leaf=0.701193929
			14:leaf=-0.162571639
booster[3]:
0:[f5<52.2770996] yes=1,no=2,missing=1
	1:[f5<39.5] yes=3,no=4,missing=3
		3:[f2<36.25] yes=7,no=8,missing=7
			7:leaf=0.071767427
			8:leaf=-0.417210966
		4:[f1<0.5] yes=9,no=10,missing=9
			9:leaf=-1.11668766
			10:leaf=0.157484829
	2:[f5<60.2874985] yes=5,no=6,missing=5
		5:leaf=1.24681115
		6:[f1<0.5] yes=11,no=12,missing=11
			11:leaf=-0.303524911
			12:leaf=0.574345052
booster[4]:
0:[f2<30.75] yes=1,no=2,missing=1
	1:[f5<134.641647] yes=3,no=4,missing=3
		3:[f2<5.5] yes=7,no=8,missing=7
			7:leaf=0.545291424
			8:leaf=-0.140131742
		4:leaf=-1.09369481
	2:[f5<7.91040039] yes=5,no=6,missing=5
		5:[f2<33.5] yes=9,no=10,missing=9
			9:leaf=-0.206695586
			10:leaf=-0.794644713
		6:[f2<36.25] yes=11,no=12,missing=11
			11:leaf=0.818026721
			12:leaf=0.103293106
booster[5]:
0:[f5<84.9875031] yes=1,no=2,missing=1
	1:[f5<8.03960037] yes=3,no=4,missing=3
		3:[f2<29.5] yes=7,no=8,missing=7
			7:leaf=0.462746263
			8:leaf=-0.0933386907
		4:[f5<15.1729002] yes=9,no=10,missing=9
			9:leaf=-0.405088842
			10:leaf=0.0320950039
	2:[f5<135.06665] yes=5,no=6,missing=5
		5:[f2<42.5] yes=11,no=12,missing=11
			11:leaf=1.07230234
			12:leaf=0.065056026
		6:[f5<254.947906] yes=13,no=14,missing=13
			13:leaf=-0.407092005
			14:leaf=0.573900819
booster[6]:
0:[f0<2.5] yes=1,no=2,missing=1
	1:[f1<0.5] yes=3,no=4,missing=3
		3:[f2<17.5] yes=7,no=8,missing=7
			7:leaf=0.710923135
			8:leaf=-0.135767207
		4:[f5<149.0354] yes=9,no=10,missing=9
			9:leaf=0.62382704
			10:leaf=0.0463485233
	2:[f5<8.125] yes=5,no=6,missing=5
		5:[f5<7.91040039] yes=11,no=12,missing=11
			11:leaf=-0.0746227279
			12:leaf=0.455138803
		6:[f2<23.5] yes=13,no=14,missing=13
			13:leaf=-0.565563142
			14:leaf=-0.0325298123
booster[7]:
0:[f5<7.1333499] yes=1,no=2,missing=1
	1:[f2<24.5] yes=3,no=4,missing=3
		3:leaf=-0.92535001
		4:leaf=0.0883864164
	2:[f6<0.5] yes=5,no=6,missing=5
		5:[f5<31.8541508] yes=7,no=8,missing=7
			7:leaf=0.059448
			8:leaf=-0.339467049
		6:[f2<30.25] yes=9,no=10,missing=9
			9:leaf=0.32680425
			10:leaf=-0.195055529
booster[8]:
0:[f5<29.4125004] yes=1,no=2,missing=1
	1:[f5<27.3604012] yes=3,no=4,missing=3
		3:[f5<26.125] yes=7,no=8,missing=7
			7:leaf=-0.117311068
			8:leaf=0.601267815
		4:leaf=-1.09821939
	2:[f5<31.8541508] yes=5,no=6,missing=5
		5:leaf=0.872933269
		6:[f2<47.5] yes=9,no=10,missing=9
			9:leaf=-0.0195038822
			10:leaf=0.627408624
booster[9]:
0:[f2<27.5] yes=1,no=2,missing=1
	1:[f2<26.5] yes=3,no=4,missing=3
		3:[f2<1.5] yes=7,no=8,missing=7
			7:leaf=0.654020011
			8:leaf=-0.0111031672
		4:[f5<12.7375002] yes=9,no=10,missing=9
			9:leaf=1.91825235
			10:leaf=0.0648656636
	2:[f5<7.73124981] yes=5,no=6,missing=5
		5:leaf=-0.685952902
		6:[f4<1.5] yes=11,no=12,missing=11
			11:leaf=0.0280077606
			12:leaf=-0.605760753
